sequential/simple_rnn/kernel:0
(1, 200)
[[ 0.11599458 -0.10157959  0.1311914  -0.14025904  0.09569979  0.15942663
   0.00830274  0.16267154  0.04669373 -0.11655909 -0.01056666  0.03617499
  -0.14876887 -0.16220486  0.11495231  0.15604122 -0.09311066  0.02097119
   0.09511956  0.12330363  0.12200035 -0.05805328  0.11273715  0.00197412
   0.05881075 -0.07199367  0.16501278  0.01601248 -0.11893062  0.02204674
   0.1339894   0.00088693 -0.06048338 -0.13743463 -0.10134625 -0.05286535
  -0.0304612   0.07024644  0.01033927  0.0247532   0.17078838 -0.06027803
  -0.16132866  0.13903895  0.03992863 -0.11364979 -0.102001    0.09133569
   0.0125458   0.01135912 -0.11476324  0.06170496 -0.13282749 -0.06924491
   0.178233   -0.12946229 -0.15405264  0.16106093  0.02347834 -0.04946642
  -0.13899077  0.09713498  0.12978558 -0.07784639  0.10969136  0.1558972
   0.04269711  0.07002649 -0.0449065  -0.06670777  0.08283955  0.15396576
   0.12137678 -0.01360361  0.11306063 -0.10775982 -0.1378898  -0.09914502
  -0.15387703 -0.16126579 -0.01683683  0.03677082  0.13456717  0.00114007
  -0.02514535 -0.03483358  0.11090709  0.02682327  0.06707951  0.17164527
  -0.02676445  0.1434268  -0.0273688   0.04660323  0.04497781  0.17191988
  -0.16443527  0.13077176 -0.12062218 -0.1117294  -0.07053512  0.03822364
   0.06513209  0.16377679 -0.01498375 -0.04801508 -0.1639403  -0.05462048
  -0.03817718 -0.01981731  0.08059462 -0.00425549  0.16406019 -0.10587788
  -0.03104273  0.10708267  0.13964255 -0.03819687  0.04609835 -0.00964456
   0.01543581  0.03941566  0.0567567  -0.14335988 -0.02434541 -0.01316473
   0.11685878  0.13988177 -0.17309274  0.04426255  0.02566893  0.17232542
  -0.11078623 -0.14915891  0.04301823  0.16642626  0.01249711 -0.08290429
   0.07870217  0.10645043 -0.14242595 -0.15310255  0.04026596  0.01206513
  -0.05159347  0.00447127  0.14957193 -0.07757367 -0.02306321 -0.11601308
   0.11017323  0.11396833  0.01597041  0.07766733 -0.10765906  0.01152453
   0.04389748  0.08854644 -0.00667624 -0.14744432 -0.12991172 -0.08776993
   0.12249439 -0.02412522 -0.13950118  0.15210186  0.02956808 -0.06469285
   0.04014747  0.14382231 -0.08260116 -0.07010844  0.0266536   0.07858303
   0.0684958   0.10193918  0.17049384 -0.03213894  0.12307656  0.17125133
   0.07451118  0.05735674  0.15617593 -0.17283967  0.15385559 -0.07869689
  -0.13946488 -0.079435    0.16250895 -0.10498866 -0.0433588  -0.0075555
   0.0618959  -0.00204884  0.15525477 -0.03833454 -0.05708942  0.10249492
   0.07812144  0.08011258]]
sequential/simple_rnn/recurrent_kernel:0
(200, 200)
[[-0.14584346 -0.11914255 -0.02794373 ... -0.05001451  0.03959105
  -0.00604896]
 [ 0.07078642 -0.052537   -0.03434196 ... -0.1534263   0.05613735
   0.06230268]
 [-0.05058444 -0.10283541 -0.03896238 ...  0.11095987  0.00932618
   0.01533202]
 ...
 [ 0.13230559 -0.01605382  0.03974163 ... -0.03765956  0.13418128
   0.02254968]
 [ 0.00246216 -0.02080448  0.0214547  ... -0.0671505   0.02748737
   0.03610459]
 [-0.0964162  -0.05268799  0.05991066 ... -0.04680168  0.0382672
  -0.17820366]]
sequential/simple_rnn/bias:0
(200,)
[ 0.00619771 -0.01358696  0.00040292  0.01941026 -0.01727918  0.01003238
  0.01854094  0.00265774 -0.00176055  0.0161034   0.02096546  0.00198148
 -0.01270301 -0.03179981 -0.01948957  0.0078347  -0.003395    0.03747755
  0.02070311  0.00674877 -0.00792987  0.01175763  0.00315223 -0.0007838
  0.01866397  0.00037152  0.0171297   0.01009758 -0.01046528 -0.00393609
 -0.00696    -0.01732527  0.01046974  0.01110217  0.0131513  -0.00062251
 -0.00621071  0.00987382  0.01539134  0.01170135  0.02887371 -0.0055852
 -0.01739653  0.02078901  0.00533415 -0.00140918 -0.00995771  0.01186628
 -0.00300494 -0.01087615  0.00869464  0.00327832 -0.00921076 -0.01169777
  0.01828762  0.0071174   0.01372334  0.01586162 -0.00412979 -0.01935372
 -0.02189892  0.01653332 -0.00821299  0.00410664 -0.00764101 -0.0080949
  0.00790232  0.01181029  0.00073628 -0.0028223   0.01745476  0.00698143
 -0.00892951  0.01558792  0.01638478 -0.01663817  0.02437873 -0.01476454
 -0.01485326 -0.03234956 -0.02414712 -0.0023992  -0.00495768 -0.00262219
  0.0007648  -0.0118958   0.01363182 -0.01615789 -0.01651115 -0.00141935
 -0.00297263  0.00615466 -0.03427919 -0.01250983 -0.01890364  0.00424613
 -0.0036188   0.00117747 -0.00142179  0.00061983  0.00479334 -0.00992396
  0.01581423 -0.00508594  0.00141398 -0.01223707  0.00507646 -0.00194671
 -0.01194262  0.00023087  0.00209734 -0.02017004  0.03254222  0.0121642
  0.00107124  0.02165203 -0.00862272  0.01001961 -0.01447944  0.02245865
  0.00339073  0.02163393 -0.00199328 -0.01814798 -0.01312567 -0.00515022
  0.00642987  0.00583984 -0.03583115  0.01055323  0.00637811  0.01885904
  0.00645559  0.00566317  0.00078081  0.01548546 -0.01185799 -0.00314106
  0.00683689  0.00834588  0.00775263 -0.00171222 -0.00175163  0.00397553
 -0.01755084 -0.0031549   0.02547276 -0.00653179  0.00731316 -0.00909864
  0.0082076   0.02429781  0.00327123 -0.0118236   0.00812911 -0.00250402
  0.01822341  0.00415102 -0.01664179 -0.00831143  0.01706812 -0.00558149
  0.026681    0.01101318 -0.00214541  0.00969344  0.00349704 -0.01172838
 -0.00626114 -0.01211173  0.01065372  0.00651289  0.02817878  0.00698789
 -0.00809139  0.01400008  0.0173314   0.00513466  0.00948539  0.00763837
  0.00943279 -0.00503722 -0.00573573 -0.01066012  0.00872038  0.01939069
 -0.01395914 -0.01327922  0.00665685  0.00156014  0.03184551  0.00526852
  0.01222992  0.00301991  0.00409738  0.00595608  0.0134353  -0.00537473
  0.00987809  0.00591969]
sequential/simple_rnn_1/kernel:0
(200, 200)
[[-0.06395212 -0.04031878 -0.00538952 ... -0.01228936 -0.08214472
   0.02593515]
 [-0.08041931  0.02708574 -0.0322151  ... -0.07691272 -0.01020411
   0.04760924]
 [-0.11948065  0.08259045 -0.09784539 ... -0.06471875 -0.00929766
  -0.12230174]
 ...
 [-0.05016928 -0.10978204  0.0593652  ... -0.05456529 -0.08873556
   0.06752431]
 [-0.08301577 -0.02811236 -0.0001813  ...  0.00677736  0.05625574
   0.05146445]
 [ 0.09184191 -0.00768587  0.05397062 ...  0.0428322  -0.11862754
   0.04227853]]
sequential/simple_rnn_1/recurrent_kernel:0
(200, 200)
[[-0.12287437 -0.0893361   0.06785856 ... -0.03325085  0.00668211
  -0.03689516]
 [ 0.03100563  0.09760517  0.00154503 ... -0.05971004 -0.07149475
  -0.06724194]
 [-0.08143693 -0.04228347 -0.03793816 ... -0.1037288   0.10019317
   0.02330123]
 ...
 [-0.02657109  0.05257885  0.00633423 ...  0.0107715  -0.00846853
  -0.09685219]
 [-0.07013254  0.05151679 -0.07765887 ... -0.02508107 -0.07394036
  -0.05952128]
 [ 0.02262134 -0.00778671  0.0118552  ... -0.05111013  0.06971693
   0.03833424]]
sequential/simple_rnn_1/bias:0
(200,)
[-0.0854114   0.08336259 -0.07799494 -0.02081322 -0.07557304  0.01867117
 -0.06535479 -0.07173613 -0.009468   -0.02000856 -0.05035857  0.03911699
  0.08407713 -0.07583064  0.10491058 -0.0751879   0.05562022 -0.09699962
 -0.07030904 -0.11611731  0.08012781 -0.040293   -0.06707625  0.07053714
 -0.08112314  0.07089916  0.08552793 -0.06958807  0.0735896   0.07499243
 -0.10070382  0.03952779  0.02026731  0.05579256  0.04049904  0.01622165
 -0.07548735  0.05495608  0.06474181  0.08763926  0.02287469  0.08944948
 -0.07768926 -0.00254311 -0.07922919 -0.09317954  0.08174127 -0.08026201
 -0.00880487 -0.05088243  0.06376246  0.07157779 -0.06438167  0.0571706
  0.04123664 -0.02442819 -0.07910932  0.01983205 -0.03455801  0.06340231
  0.05441775  0.00439849 -0.02260199 -0.09578894 -0.04319442  0.10366189
  0.00542617 -0.01953167 -0.01189133 -0.06495122  0.06842004 -0.07391106
 -0.0937999   0.04887463  0.01557638  0.08412141 -0.00016915  0.0355064
  0.07391203  0.0965794   0.0460335  -0.01001205  0.07095853  0.08029055
 -0.06310258 -0.06184892 -0.06590714 -0.02971948 -0.0628471   0.06379333
 -0.02114597  0.06254701  0.10854368 -0.08753206 -0.05531719  0.00249593
 -0.00368487 -0.03699858  0.01200178  0.0793146  -0.07999339  0.01549195
  0.03896787  0.06472903 -0.05286394 -0.06350835 -0.06242871 -0.0061669
 -0.05035108 -0.03343823  0.00241353  0.01272193  0.05055416 -0.01233588
  0.0494981  -0.01292618  0.03759059 -0.06308447  0.07351116  0.07443213
  0.05126244 -0.07565103  0.06140053  0.06801084  0.0236356   0.03965832
  0.06488203  0.07091129 -0.08736363 -0.00500143  0.08548764  0.05888039
 -0.09325808 -0.00450785  0.06682438  0.07134156 -0.06193297 -0.10051574
  0.06166905 -0.07179614 -0.09410115  0.03186879 -0.08670035 -0.07348511
  0.09518539 -0.06003646 -0.00466683 -0.04485029  0.03556518  0.08575901
  0.04925292  0.09441075  0.06294619  0.04188608 -0.08148844 -0.06911926
  0.04216801 -0.05195484 -0.07366365 -0.07039698 -0.07496018  0.07993132
 -0.00937324  0.07213812 -0.05774497 -0.03969025  0.02796588 -0.07501508
 -0.09491702 -0.04953758 -0.01022179  0.08020428  0.03638214  0.08420146
 -0.08088196 -0.06531458 -0.07548251  0.04611029  0.08714842 -0.08796199
 -0.05542     0.0276271   0.07055607  0.04105487  0.07680819  0.05597191
 -0.07880489  0.038972   -0.07387163  0.00266601  0.03296229  0.04473471
 -0.06763937  0.07120666 -0.10254752 -0.08482677  0.02623596  0.04599283
 -0.00289947  0.05003473]
sequential/dense/kernel:0
(200, 1)
[[-0.03451936]
 [ 0.02395532]
 [-0.03820552]
 [-0.00839105]
 [-0.03162322]
 [ 0.00678404]
 [-0.02177896]
 [-0.04571398]
 [-0.00573348]
 [-0.02309493]
 [-0.02682961]
 [ 0.01268159]
 [ 0.01604932]
 [-0.01623562]
 [ 0.01120398]
 [-0.02847353]
 [ 0.03067195]
 [-0.03540546]
 [-0.03322346]
 [-0.04737397]
 [ 0.04830087]
 [-0.02684815]
 [-0.03363192]
 [ 0.04402012]
 [-0.00408861]
 [ 0.0434798 ]
 [ 0.0536872 ]
 [-0.02712212]
 [ 0.04637462]
 [ 0.04434169]
 [-0.04162069]
 [ 0.02154981]
 [ 0.0111785 ]
 [ 0.03629584]
 [ 0.0467828 ]
 [ 0.01902358]
 [-0.04574527]
 [ 0.00301013]
 [ 0.02594112]
 [ 0.06518489]
 [ 0.0204004 ]
 [ 0.03341247]
 [-0.04384818]
 [-0.02700554]
 [-0.03069832]
 [-0.0433308 ]
 [ 0.01593126]
 [-0.00617723]
 [ 0.01635098]
 [-0.0322256 ]
 [ 0.03570506]
 [ 0.01738201]
 [-0.04102224]
 [ 0.02045449]
 [ 0.04131975]
 [-0.00561545]
 [-0.04589672]
 [ 0.00585985]
 [ 0.00145298]
 [ 0.03061147]
 [ 0.00442881]
 [-0.00141266]
 [-0.0115027 ]
 [-0.03250202]
 [-0.03593206]
 [ 0.05176868]
 [-0.01542802]
 [-0.02156304]
 [-0.00227572]
 [-0.03642112]
 [ 0.02026061]
 [-0.0502527 ]
 [-0.05105298]
 [ 0.03087127]
 [ 0.00756664]
 [ 0.04637932]
 [-0.01338033]
 [ 0.05150428]
 [-0.00874586]
 [ 0.04537385]
 [ 0.01122535]
 [-0.01977587]
 [ 0.02077071]
 [ 0.01086561]
 [-0.03315182]
 [-0.03090301]
 [-0.04464557]
 [-0.01579514]
 [-0.0277511 ]
 [ 0.03881755]
 [-0.00523484]
 [ 0.05983063]
 [ 0.06403749]
 [-0.03731386]
 [-0.03636904]
 [-0.01008565]
 [ 0.00072627]
 [-0.00499569]
 [-0.01494126]
 [ 0.02974281]
 [-0.00782007]
 [ 0.01936238]
 [ 0.02404429]
 [ 0.04760267]
 [-0.04352421]
 [-0.01472446]
 [-0.04507332]
 [-0.01666375]
 [-0.04144457]
 [-0.03928953]
 [-0.00257005]
 [-0.01299279]
 [ 0.02765717]
 [-0.00621475]
 [ 0.05000213]
 [-0.00727631]
 [ 0.02731491]
 [-0.02217544]
 [ 0.02847823]
 [ 0.03661485]
 [ 0.00971016]
 [-0.05720961]
 [ 0.04545015]
 [ 0.00255986]
 [ 0.00566036]
 [ 0.0520826 ]
 [-0.02152489]
 [ 0.013137  ]
 [-0.03356853]
 [ 0.00238041]
 [ 0.03714654]
 [ 0.01394364]
 [-0.049198  ]
 [-0.0227855 ]
 [ 0.03554278]
 [ 0.01711832]
 [-0.04537366]
 [-0.04407771]
 [ 0.04858245]
 [-0.03827148]
 [-0.0378308 ]
 [-0.0046756 ]
 [-0.03956435]
 [-0.03750284]
 [ 0.04119213]
 [-0.04898358]
 [ 0.01899735]
 [-0.00943177]
 [ 0.0175329 ]
 [ 0.03281888]
 [ 0.01727094]
 [ 0.03262075]
 [ 0.05417057]
 [ 0.04130517]
 [-0.03888007]
 [-0.04983367]
 [ 0.01458324]
 [-0.02157183]
 [-0.02095704]
 [-0.00793526]
 [-0.05832449]
 [ 0.01000951]
 [ 0.0072035 ]
 [ 0.03128604]
 [ 0.00413552]
 [-0.02320134]
 [-0.00123009]
 [-0.04602382]
 [-0.02857243]
 [-0.01025004]
 [-0.01335751]
 [ 0.05469263]
 [-0.00350287]
 [ 0.06828436]
 [-0.03845637]
 [-0.03189479]
 [-0.02607654]
 [ 0.02600003]
 [ 0.02287961]
 [-0.01992298]
 [-0.03198012]
 [ 0.01775276]
 [ 0.03767787]
 [ 0.02290752]
 [ 0.05374642]
 [ 0.04090061]
 [-0.04157354]
 [ 0.01996686]
 [-0.01782498]
 [ 0.00593197]
 [ 0.00654249]
 [ 0.00544317]
 [-0.01416318]
 [ 0.03868116]
 [-0.03550375]
 [-0.03962642]
 [ 0.02088112]
 [ 0.03289577]
 [-0.00258827]
 [ 0.03588786]]
sequential/dense/bias:0
(1,)
[0.1171151]
