sequential/gru/kernel:0
(1, 150)
[[ 0.07989472 -0.08279046  0.09659527 -0.16931513  0.06617359  0.11658961
   0.00976474  0.1380921   0.03503283 -0.20173357 -0.04013253 -0.00062799
  -0.20485732 -0.21418951  0.16671334  0.18853866 -0.08892369 -0.05717119
   0.05155145  0.08488778  0.12401051 -0.06384824  0.08261074 -0.05722838
  -0.00072072 -0.07211814  0.1349744   0.01887153 -0.10701797  0.01580446
   0.12635458 -0.01376046 -0.06814857 -0.19352433 -0.18222377 -0.10896023
  -0.02001209  0.024954   -0.05225614  0.0294999   0.1891482  -0.10555932
  -0.2204567   0.10018851 -0.0152323  -0.17048107 -0.16152029  0.09904594
  -0.00393891 -0.03410136 -0.10196284  0.09866842 -0.1585016  -0.05314592
   0.21340875 -0.16620418 -0.19780429  0.19341739  0.04694467 -0.06254756
  -0.13325763  0.12142316  0.16759902 -0.07573549  0.12365887  0.20105748
   0.06499555  0.0900631  -0.07443247 -0.04592223  0.0697735   0.17074655
   0.17450868 -0.01585878  0.13736299 -0.11961824 -0.19936879 -0.10042927
  -0.17373824 -0.16729431 -0.00974922  0.06328934  0.14634469  0.02047769
  -0.00921084 -0.04952042  0.13804787  0.06310336  0.12114989  0.20910884
  -0.01685735  0.1765182  -0.00092428  0.0815587   0.08874285  0.21723929
  -0.17796206  0.14356264 -0.15628223 -0.14169651 -0.1125618   0.03656161
   0.08201792  0.17568924 -0.05970066 -0.07063127 -0.17818095 -0.08241788
  -0.00277836 -0.04369213  0.08807816  0.04108052  0.15489796 -0.15709858
  -0.01918686  0.08756714  0.15782122 -0.0700532   0.09081271 -0.06755826
   0.02313173  0.01221641  0.0932743  -0.1735909  -0.05079017 -0.02638982
   0.14952418  0.132354   -0.1417847   0.05121172  0.03763651  0.17345646
  -0.12012658 -0.17386813  0.08230159  0.19186617  0.00960428 -0.12636623
   0.11230379  0.1018974  -0.1692995  -0.19506854  0.06824936  0.03361507
  -0.08459301 -0.00894523  0.1795584  -0.07491649 -0.04554757 -0.13902538]]
sequential/gru/recurrent_kernel:0
(50, 150)
[[-0.14447315 -0.04457524  0.01540962 ... -0.02247875 -0.11756077
  -0.01429166]
 [-0.14561321  0.01557761  0.02459905 ...  0.08188351  0.1035274
  -0.05275533]
 [-0.03444208 -0.00042643 -0.01355446 ...  0.02042095  0.0312016
  -0.02666264]
 ...
 [-0.04132905  0.08341052  0.11550464 ... -0.05230186 -0.02239801
   0.08753728]
 [-0.04525754 -0.01922271 -0.07935996 ...  0.02325037 -0.02373023
  -0.01407565]
 [-0.03903178 -0.11922989  0.00043924 ... -0.0301356   0.01772838
   0.15745677]]
sequential/gru/bias:0
(2, 150)
[[-5.36039919e-02  2.46335641e-02 -5.56925386e-02  1.15865627e-02
  -5.65692931e-02 -6.05836064e-02  1.54527267e-02 -4.30040061e-02
  -2.39606407e-02 -4.59444262e-02 -1.23904459e-02 -4.05883752e-02
  -4.20910381e-02 -4.61380407e-02  1.57884005e-02  5.29241748e-03
   1.26353223e-02 -4.22589518e-02 -4.74200919e-02 -4.89181876e-02
  -8.93723965e-03  2.07699463e-02 -4.71418016e-02 -5.52486964e-02
  -5.65516911e-02  1.35634039e-02 -4.12871987e-02  6.86511025e-03
   1.86597463e-02 -2.42268154e-03 -1.61334854e-02 -2.73318440e-02
   1.22171352e-02 -2.42203344e-02 -5.30278869e-02 -4.63288426e-02
   1.05482731e-02 -4.74553779e-02 -4.70049903e-02  1.43337222e-02
   2.28364132e-02 -3.75817418e-02 -4.52690236e-02 -2.54870038e-02
  -6.12944141e-02 -2.38527358e-02 -5.48865981e-02 -1.05535584e-02
  -2.30818782e-02 -5.01212962e-02  4.07948308e-02  7.27865985e-03
  -1.59700606e-02  1.65567789e-02  7.43537536e-03 -7.79953040e-03
  -7.12732458e-03  3.77516565e-03  1.47634130e-02 -2.23181341e-02
   2.05375794e-02  1.55424988e-02  2.77224388e-02  6.26286166e-03
  -1.13301184e-02  1.65680107e-02  2.35365611e-02  3.84395965e-03
  -2.02808175e-02  2.66595725e-02 -1.20904054e-02 -2.16186438e-02
   2.58551203e-02  9.98128019e-03  2.83612637e-03 -1.50195472e-02
  -2.56077722e-02 -1.25588570e-02 -1.51277166e-02 -1.45324646e-02
  -2.01726574e-02  1.89851820e-02 -1.67299304e-02  3.07080671e-02
   8.32355395e-03 -8.99382774e-03  5.29343681e-03 -7.44423232e-05
   1.05253020e-02  4.93082590e-03  1.36078866e-02  1.14700068e-02
  -2.26470716e-02 -6.12086558e-04 -9.72124375e-03  4.25283145e-03
   1.69509253e-03  8.11962318e-03 -1.07583003e-02 -1.26069635e-02
  -4.79615200e-03 -4.83166985e-03  8.67129012e-04 -1.96658000e-02
  -1.69107504e-03 -4.36138129e-03  1.51560074e-02  3.06128245e-03
   2.18945253e-03 -3.69341532e-03 -1.32865049e-02  3.39253992e-03
  -2.32971087e-02  1.04613265e-03  1.20317172e-02 -1.18580023e-02
  -1.48926098e-02  1.70969474e-03  1.11298065e-03 -1.25842942e-02
  -1.46703739e-02 -4.43414692e-03 -2.67399388e-04  5.21247089e-03
  -2.42745038e-03 -6.04719901e-03 -4.79076896e-03 -1.04770223e-02
   1.32434601e-02  4.52616106e-04  2.29622543e-04 -1.71564072e-02
   1.65807772e-02  2.24420018e-02 -3.15120327e-04 -1.77231096e-02
  -1.06784524e-02 -1.10617024e-03 -2.59348919e-04 -1.17612705e-02
   7.05401599e-03  2.15571257e-03  8.86039168e-04 -4.92152944e-03
  -9.19808261e-03 -6.07686955e-03 -2.57965876e-03  2.44365651e-02
   1.73841361e-02  2.01326702e-03]
 [-5.36039919e-02  2.46335641e-02 -5.56925386e-02  1.15865627e-02
  -5.65692931e-02 -6.05836064e-02  1.54527267e-02 -4.30040061e-02
  -2.39606407e-02 -4.59444262e-02 -1.23904459e-02 -4.05883752e-02
  -4.20910381e-02 -4.61380407e-02  1.57884005e-02  5.29241748e-03
   1.26353223e-02 -4.22589518e-02 -4.74200919e-02 -4.89181876e-02
  -8.93723965e-03  2.07699463e-02 -4.71418016e-02 -5.52486964e-02
  -5.65516911e-02  1.35634039e-02 -4.12871987e-02  6.86511025e-03
   1.86597463e-02 -2.42268154e-03 -1.61334854e-02 -2.73318440e-02
   1.22171352e-02 -2.42203344e-02 -5.30278869e-02 -4.63288426e-02
   1.05482731e-02 -4.74553779e-02 -4.70049903e-02  1.43337222e-02
   2.28364132e-02 -3.75817418e-02 -4.52690236e-02 -2.54870038e-02
  -6.12944141e-02 -2.38527358e-02 -5.48865981e-02 -1.05535584e-02
  -2.30818782e-02 -5.01212962e-02  4.07948308e-02  7.27865985e-03
  -1.59700606e-02  1.65567789e-02  7.43537536e-03 -7.79953040e-03
  -7.12732458e-03  3.77516565e-03  1.47634130e-02 -2.23181341e-02
   2.05375794e-02  1.55424988e-02  2.77224388e-02  6.26286166e-03
  -1.13301184e-02  1.65680107e-02  2.35365611e-02  3.84395965e-03
  -2.02808175e-02  2.66595725e-02 -1.20904054e-02 -2.16186438e-02
   2.58551203e-02  9.98128019e-03  2.83612637e-03 -1.50195472e-02
  -2.56077722e-02 -1.25588570e-02 -1.51277166e-02 -1.45324646e-02
  -2.01726574e-02  1.89851820e-02 -1.67299304e-02  3.07080671e-02
   8.32355395e-03 -8.99382774e-03  5.29343681e-03 -7.44423232e-05
   1.05253020e-02  4.93082590e-03  1.36078866e-02  1.14700068e-02
  -2.26470716e-02 -6.12086558e-04 -9.72124375e-03  4.25283145e-03
   1.69509253e-03  8.11962318e-03 -1.07583003e-02 -1.26069635e-02
  -4.36507910e-03 -4.96773282e-03  8.44748211e-05 -1.97012648e-02
  -2.81845173e-03 -3.36549548e-03  1.48743959e-02  2.33439682e-03
   2.21810094e-03 -3.51598347e-03 -1.35566676e-02  3.93488724e-03
  -2.29670051e-02  1.38460938e-03  1.23741562e-02 -1.20477332e-02
  -1.50538851e-02  1.37046166e-03  9.12953576e-04 -1.21132014e-02
  -1.44961057e-02 -5.09081362e-03  3.23955115e-04  5.24792867e-03
  -3.00846598e-03 -5.85804554e-03 -5.32717071e-03 -1.04267346e-02
   1.27557768e-02  6.47260640e-06  3.34244542e-04 -1.70539189e-02
   1.64513756e-02  2.25402173e-02 -6.60273188e-04 -1.78659689e-02
  -1.09052882e-02 -1.24488515e-03  2.06645433e-04 -1.19851604e-02
   7.15268170e-03  1.63956196e-03  9.54622810e-04 -4.82029561e-03
  -9.85923968e-03 -6.75959093e-03 -3.51238134e-03  2.41469461e-02
   1.78531203e-02  2.66424054e-03]]
sequential/gru_1/kernel:0
(50, 150)
[[-0.07007012 -0.05672949 -0.01158671 ... -0.06046475  0.14947316
  -0.10976981]
 [-0.03999059 -0.13721372 -0.06255344 ...  0.12820268 -0.03871886
   0.07948227]
 [ 0.11844273 -0.03446682  0.12119032 ... -0.13707417  0.08938133
  -0.18240818]
 ...
 [ 0.08067566  0.16183332  0.0876871  ... -0.03113992 -0.15862714
  -0.137512  ]
 [ 0.13849755 -0.08708036 -0.07081101 ...  0.14506797 -0.02851667
   0.14444278]
 [ 0.0276309   0.01631737  0.13153239 ... -0.05940385 -0.10952789
   0.04085634]]
sequential/gru_1/recurrent_kernel:0
(50, 150)
[[-0.11327074 -0.04191887 -0.01210418 ...  0.05647723 -0.04208832
   0.09876706]
 [-0.09048888  0.07137148 -0.0152675  ...  0.19245192  0.03123219
   0.01227749]
 [ 0.09300416 -0.00028092 -0.01663033 ... -0.0840916   0.16125712
  -0.03884136]
 ...
 [-0.096901   -0.03902855 -0.04373568 ...  0.12791814 -0.17890385
   0.03477372]
 [-0.0445306  -0.00861512  0.03312832 ... -0.05674294  0.15361987
   0.06529629]
 [-0.05989464  0.07912735  0.05844811 ... -0.00822185 -0.08699937
  -0.00475903]]
sequential/gru_1/bias:0
(2, 150)
[[-1.36383707e-02 -2.54533365e-02  1.42460754e-02 -8.71695857e-03
  -4.73303422e-02  2.93347053e-03 -3.58719826e-02 -5.07481582e-02
   1.95009429e-02 -5.17091751e-02  1.35882460e-02 -3.51593941e-02
  -4.13653590e-02 -2.49081608e-02  3.69694717e-02 -4.22672667e-02
  -4.12192829e-02  2.40076166e-02 -4.68062609e-02 -4.19773087e-02
  -1.71466544e-02  8.33337544e-04 -5.07468097e-02 -2.04001535e-02
  -2.65226625e-02 -4.07071598e-02 -3.64260748e-02 -5.38053885e-02
  -1.46304350e-03 -2.22588610e-02 -4.92603257e-02  1.50627261e-02
  -4.70215082e-02 -4.65948060e-02 -1.05562555e-02 -1.51956119e-02
  -5.71500994e-02 -4.16910015e-02 -1.58074256e-02 -3.20348814e-02
  -4.62769344e-02 -3.86030078e-02 -4.57423128e-04 -2.02225838e-02
  -4.03064229e-02 -4.56761047e-02 -5.91627099e-02  1.24783032e-02
  -4.35885973e-02 -5.17079383e-02 -1.46751888e-02  4.74506989e-02
   4.16364558e-02  3.07259392e-02 -4.34495567e-04  1.60802398e-02
  -1.97566953e-02  1.08579798e-02 -1.89606361e-02 -2.32665264e-03
   1.17469998e-02 -2.63167603e-04  1.75429136e-02 -2.02862546e-02
  -2.03630608e-02 -1.20183211e-02 -7.57037336e-03  6.15162263e-03
   1.69412903e-02 -1.02829887e-02  5.97315561e-03  1.11995041e-02
  -2.21073665e-02  1.95580442e-02 -1.27081741e-02 -6.45072618e-03
   1.37116155e-02  2.82037538e-02  3.14652803e-03  1.77579559e-02
   1.64482147e-02  7.39855319e-03 -8.41753650e-03  1.48449400e-02
   2.45950352e-02  4.30690311e-03  2.95172222e-02  2.38606352e-02
   1.77861247e-02 -8.48271232e-03  6.44376501e-03  2.62630917e-02
  -7.27482978e-03  2.66679917e-02  6.15130120e-05 -1.68918017e-02
   5.11009758e-03 -1.56415645e-02  1.47830730e-03 -1.68504696e-02
  -9.82978847e-03  2.81441938e-02 -1.72326379e-02 -2.25190967e-02
  -6.12464827e-03  8.11152160e-03 -2.92033912e-03 -9.78825241e-03
  -6.67284196e-03 -9.39101633e-03 -8.82504787e-03  1.54265529e-03
   4.77622496e-03 -7.49720540e-03 -1.48098422e-02 -5.54362172e-03
   6.12141937e-03 -9.51285101e-03 -6.47766376e-03 -4.26435797e-03
   7.34975468e-03 -1.20962914e-02 -8.73488374e-03  1.44636184e-02
   2.98840040e-03  5.60600543e-03  4.50772839e-03 -8.18805117e-03
   8.87266733e-03  7.60724302e-03 -9.10114031e-03  1.09539153e-02
   3.30493343e-03  6.78438181e-03  1.64768528e-02  5.66838635e-03
  -9.13334545e-03  2.48896191e-03  1.69949178e-02  7.87296891e-03
   6.78096944e-03  4.80587268e-03 -1.03065902e-02 -2.37735435e-02
  -7.63922231e-03 -6.69106748e-03  9.52767767e-03  3.56379169e-05
   6.03841618e-03 -8.22919887e-03]
 [-1.36383707e-02 -2.54533365e-02  1.42460754e-02 -8.71695857e-03
  -4.73303422e-02  2.93347053e-03 -3.58719826e-02 -5.07481582e-02
   1.95009429e-02 -5.17091751e-02  1.35882460e-02 -3.51593941e-02
  -4.13653590e-02 -2.49081608e-02  3.69694717e-02 -4.22672667e-02
  -4.12192829e-02  2.40076166e-02 -4.68062609e-02 -4.19773087e-02
  -1.71466544e-02  8.33337544e-04 -5.07468097e-02 -2.04001535e-02
  -2.65226625e-02 -4.07071598e-02 -3.64260748e-02 -5.38053885e-02
  -1.46304350e-03 -2.22588610e-02 -4.92603257e-02  1.50627261e-02
  -4.70215082e-02 -4.65948060e-02 -1.05562555e-02 -1.51956119e-02
  -5.71500994e-02 -4.16910015e-02 -1.58074256e-02 -3.20348814e-02
  -4.62769344e-02 -3.86030078e-02 -4.57423128e-04 -2.02225838e-02
  -4.03064229e-02 -4.56761047e-02 -5.91627099e-02  1.24783032e-02
  -4.35885973e-02 -5.17079383e-02 -1.46751888e-02  4.74506989e-02
   4.16364558e-02  3.07259392e-02 -4.34495567e-04  1.60802398e-02
  -1.97566953e-02  1.08579798e-02 -1.89606361e-02 -2.32665264e-03
   1.17469998e-02 -2.63167603e-04  1.75429136e-02 -2.02862546e-02
  -2.03630608e-02 -1.20183211e-02 -7.57037336e-03  6.15162263e-03
   1.69412903e-02 -1.02829887e-02  5.97315561e-03  1.11995041e-02
  -2.21073665e-02  1.95580442e-02 -1.27081741e-02 -6.45072618e-03
   1.37116155e-02  2.82037538e-02  3.14652803e-03  1.77579559e-02
   1.64482147e-02  7.39855319e-03 -8.41753650e-03  1.48449400e-02
   2.45950352e-02  4.30690311e-03  2.95172222e-02  2.38606352e-02
   1.77861247e-02 -8.48271232e-03  6.44376501e-03  2.62630917e-02
  -7.27482978e-03  2.66679917e-02  6.15130120e-05 -1.68918017e-02
   5.11009758e-03 -1.56415645e-02  1.47830730e-03 -1.68504696e-02
  -9.67946183e-03  2.85788942e-02 -1.76371448e-02 -2.28934810e-02
  -5.90715185e-03  7.97908567e-03 -3.06200003e-03 -1.00010969e-02
  -6.82908529e-03 -9.75751411e-03 -8.89450870e-03  1.41860568e-03
   5.13794227e-03 -7.53392372e-03 -1.44737503e-02 -4.95604472e-03
   6.26206724e-03 -9.49622225e-03 -6.50439830e-03 -4.28418908e-03
   7.16622081e-03 -1.22371642e-02 -8.04548804e-03  1.43583426e-02
   3.12743057e-03  5.80990128e-03  5.00488421e-03 -7.82427192e-03
   8.61704536e-03  7.39882607e-03 -9.45022330e-03  1.09248906e-02
   3.33426474e-03  6.70475978e-03  1.70429610e-02  5.79443527e-03
  -9.55893565e-03  2.59005465e-03  1.73295531e-02  7.43933069e-03
   6.68869028e-03  4.46999539e-03 -1.04346201e-02 -2.42195930e-02
  -7.30026094e-03 -6.53576478e-03  9.74316988e-03  1.75960115e-04
   5.64138545e-03 -8.37099366e-03]]
sequential/dense/kernel:0
(50, 1)
[[-0.2624006 ]
 [ 0.1650972 ]
 [-0.22573873]
 [-0.05216596]
 [-0.1789177 ]
 [ 0.03448113]
 [-0.22735608]
 [-0.32610124]
 [-0.10960241]
 [-0.16397704]
 [-0.19611137]
 [ 0.08856708]
 [ 0.17062192]
 [-0.14331351]
 [ 0.0139362 ]
 [-0.20398492]
 [ 0.23777346]
 [-0.28395742]
 [-0.25717685]
 [-0.33535802]
 [ 0.23451082]
 [-0.21700202]
 [-0.2590118 ]
 [ 0.2472005 ]
 [ 0.10294311]
 [ 0.2951818 ]
 [ 0.30365574]
 [-0.25828594]
 [ 0.256936  ]
 [ 0.26957402]
 [-0.28259978]
 [ 0.18656431]
 [ 0.09961992]
 [ 0.27038383]
 [ 0.27988914]
 [ 0.17092904]
 [-0.28437558]
 [ 0.07641742]
 [ 0.22849584]
 [ 0.33046493]
 [ 0.17056294]
 [ 0.3191377 ]
 [-0.26323313]
 [-0.11148615]
 [-0.26118723]
 [-0.32821864]
 [ 0.16211009]
 [-0.05202613]
 [ 0.16371872]
 [-0.2634235 ]]
sequential/dense/bias:0
(1,)
[0.01440863]
